1.634196250543951123e-13
2.265548859625710065e-14
-1.280225925270883636e-15
8.339162693715707064e-14
3.661099201579531837e-13
6.111776362782705974e-11
-2.420037781281081379e-11
-2.317590563905014278e-14
7.084263731194084812e-14
1.483097498977681283e-11
-6.824207865463449707e-12
1.100994295732959927e-13
-2.544631172440858791e-13
-1.368475055496531922e-10
4.749195481323909007e-11
1.706274010970787458e-13
-1.201816424156731955e-14
-2.277941724138088375e-11
-6.200567836955883649e-11
7.538414337204812909e-14
4.611866444292900269e-13
-1.290648560248186527e-10
-3.341614485119492883e-11
-8.646555693658797281e-14
-2.969985368750371890e-13
-3.237829448998752468e-11
4.809574266628757755e-11
-1.111333247649781697e-13
1.702527008262677555e-13
-1.257091791773135014e-10
-5.652159296154479762e-11
-9.678716161864997503e-14
-4.155269878181044874e-13
-1.295018953184623456e-11
6.900130356888157894e-11
-6.902117766216520067e-14
-8.385653282871885494e-15
-6.111025382016417595e-11
-2.417807710227044826e-11
4.662936703425657470e-15
2.068675092337102228e-13
8.085863738554327496e-12
-2.646675660209450720e-11
5.121597590473925266e-14
-8.696602465940728166e-14
-4.079974802017466429e-12
5.895147983322763380e-12
6.522560269672794675e-15
-1.654093528813405101e-13
3.471383011773021554e-12
2.222898290947777217e-11
-4.402034292638745683e-14
1.918257219735153285e-14
-4.070686821476543482e-12
-2.601209124399733730e-12
6.545375283118030083e-10
-6.236395085767201764e-10
-1.467445089358874414e-10
-1.024938590775951357e-10
-5.018555016000902924e-14
1.100508573159686421e-14
-5.036943084846257079e-14
2.160077672286320194e-14
8.791578576250458354e-15
-6.858772919190667117e-11
4.351961217612110300e-11
-2.453037772909283376e-13
-3.044162144583140162e-13
-2.840314886499301084e-11
-1.908994034220288724e-11
6.747380432159388874e-14
-2.081512046059330601e-13
-7.230495518181605241e-11
4.544637988146676272e-12
1.611002997670141212e-13
-1.331053323117004084e-14
-6.579259823036830157e-11
2.085653192848962306e-11
-2.825517597671023395e-14
-4.551931748197901584e-13
-7.036793714452864446e-11
9.490123381692035232e-12
2.089300954466466465e-14
1.258923520985888445e-13
2.181782766876461804e-11
-2.626533956352913000e-11
-1.509348201977900317e-13
-1.509556368795017534e-13
7.713968352973665787e-14
1.341114719277669565e-14
3.744205564083086246e-11
-2.294251637627309215e-11
-8.932438122499775091e-14
5.191038571217276854e-13
3.948789743541541997e-11
-9.936926363132356221e-14
-1.538734417660947429e-13
3.506873610947813802e-13
4.159772699907637872e-11
-1.344161150521874445e-11
-1.751723766041379804e-14
4.297126890429048274e-13
3.322260556124032732e-11
-2.158501515410948465e-11
3.199003562048829963e-14
-3.873464049508612561e-13
4.154396431358363395e-11
2.851574025194460182e-12
-9.800146805183373999e-14
-9.798238609359799511e-14
-1.116259862321555829e-13
-1.134752014575468593e-13
1.156065540606349140e-10
7.860358089244179336e-12
4.091865735134092574e-14
2.188214887066664005e-13
1.108720377876806773e-10
-2.491749685816328774e-12
1.077072458999239757e-13
-6.120911069662504644e-13
1.037804303214914792e-10
4.089889104469390801e-11
-1.437877594767655864e-13
8.180973259941382025e-13
1.134721473142370762e-10
-2.043729922912552142e-11
9.353628982466943853e-15
2.277362326497112122e-13
1.005935155865608083e-10
5.663319846652028859e-11
-2.023919226656900605e-13
-5.670637570620584711e-14
-2.021681433372890524e-13
2.167536983233020464e-13
-8.261924130947839728e-13
-4.425270913599455014e-13
9.954960033392579177e-13
2.041808996183780422e-12
-1.516047920882557243e-12
-2.636241919207193973e-13
2.382100593167901792e-13
-4.803943701170432234e-13
3.327993262913775396e-13
-7.485529665736401217e-13
3.203795735651215892e-13
-8.409939411535560794e-15
-1.732381599284238405e-13
-8.468920009718772235e-15
-1.936523857937189064e-13
3.687250157979882204e-13
-6.880575015993928290e-11
-4.650989608636496575e-13
-2.271923968399924831e-13
-3.918870436492305487e-14
6.605973667389575255e-11
1.905984918504355363e-12
3.191470525354400678e-13
-1.007282365156347836e-12
6.518081148605692210e-11
4.763654938176251075e-12
3.134124904047297377e-14
3.509367275944530462e-14
6.602523128923509788e-11
1.271803625954581740e-12
-3.173884766116685796e-13
6.281381664807739185e-13
6.769926015181421119e-11
-2.582681925310595372e-12
-1.936662635815267208e-13
3.687120053719183943e-13
-1.936471816232909759e-13
9.280961416058275404e-13
-4.679516323047305804e-13
2.851538449810675502e-13
1.069316185077495707e-12
-1.006035532657989506e-13
2.013667010913877675e-13
1.336715026861723388e-12
-3.723334574684544762e-13
-5.588932094902077097e-14
-1.522185155700128689e-13
-5.590666818378053904e-14
-4.284420040967518162e-14
-1.313411185366319955e-13
-1.551517258175120692e-11
-2.623271405329842543e-12
1.866909404846239795e-13
-1.914267355740406629e-13
-1.603362562619010945e-11
1.296907322338594973e-11
-1.960653861488026450e-13
1.650875616765468124e-13
-1.767903472270695997e-11
-5.386195423050590958e-12
-3.274464033253821071e-14
-3.269953752216281373e-14
-1.964574821724206222e-11
6.437655543736243990e-12
2.517430708337542455e-14
5.037290029541452441e-14
-1.771512309674955210e-11
1.382020274045756003e-11
-4.748978987834107102e-14
-4.750366766614888547e-14
-1.948441408217149728e-14
-1.016634693096207798e-14
7.850889307148972707e-11
2.745906267257814184e-11
-8.765210779415610887e-14
-5.535502611841991438e-14
8.495398758382941007e-11
-4.181801374636157781e-11
-2.020605904817784904e-14
1.265654248072678456e-14
-1.162815191357857714e-10
-3.838780963434261159e-11
1.021752127350339379e-14
-2.478746374823259657e-14
-1.159029811145448341e-10
2.555728307275712853e-11
6.119410533855784706e-14
-4.875401297954606861e-13
-1.112310887927542291e-10
-4.119210520099093886e-11
-8.996275946415721592e-14
2.753665351296064046e-13
-1.595714233491862810e-10
-2.105101379331979737e-11
8.176619104016680240e-14
-5.819338066981316615e-13
-1.531650452085350778e-10
1.482735659038701866e-11
1.977559515881771590e-10
1.911418790715053995e-12
3.973964018098852247e-11
2.404531823015109739e-12
4.017619570362285231e-14
-8.601019202414406095e-14
4.017619570362285231e-14
-2.732536419358666535e-14
-2.541916330200955088e-13
4.685763062284298286e-12
-3.339438342959142117e-11
-7.998809947729057512e-14
-1.578650404843173760e-13
-7.998809947729057512e-14
-6.731941393223195291e-14
4.926614671774132148e-16
-7.419206210761836173e-11
-3.371255549977072649e-11
-5.003289449412307022e-14
2.472813620535418977e-13
-3.906354504191328347e-11
5.963470304593335158e-11
-1.094610513341365277e-14
-1.371021352003509719e-13
-3.046722132937253191e-11
-1.672965443207021646e-11
-3.750125210366661577e-14
1.034242136377372390e-13
-1.861976600464262943e-10
-2.568530265323505646e-11
5.408867798095684520e-14
-2.858373260306024122e-13
1.358163690019786873e-10
3.540029970956716163e-11
-9.235667786100520971e-14
-2.732536419358666535e-14
1.467835170900974595e-10
2.202076997988690679e-11
2.356621842114492438e-14
1.786279457682837801e-13
-1.126487420122332557e-10
3.952459635080639300e-11
8.743006318923107756e-16
8.812395257962180040e-16
1.060501512994971307e-13
-1.029037965949441968e-13
3.458008510613674868e-12
1.033247477107059747e-11
6.943230712597170395e-14
1.168024010844703753e-13
-4.376167196630184608e-11
2.206666893347008704e-11
3.518539626323757830e-14
-1.443602182238379328e-13
4.467791078505839453e-11
-4.082875233919498054e-11
4.651661000831808224e-14
-2.051275815873054853e-13
4.523846626621440270e-11
4.184636415594661374e-11
6.974715943686149444e-14
9.827208491408612190e-14
-1.060150049887222112e-11
-1.239847018658763421e-11
-1.049837300426403885e-13
-1.029107354888481041e-13
-3.458016533709751261e-12
1.033247515054135784e-11
-1.049837300426403885e-13
-1.029107354888481041e-13
-1.049837300426403885e-13
-3.292158212708784504e-14
-9.411915691259764571e-14
-7.323829043226481872e-14
2.437217094808374895e-13
-3.674838211509268149e-14
1.168024010844703753e-13
-3.674664739161670468e-14
6.974889416033747125e-14
9.827728908451405232e-14
6.974629207512350604e-14
1.172135305482768786e-13
2.440881698151375900e-13
-4.854189966652100452e-14
-2.464790524459026244e-13
-1.049854647661163654e-13
-1.029090007653721273e-13
-1.049837300426403885e-13
-1.133051985569011322e-13
1.423271223099931149e-13
7.140121827120538001e-15
1.103023922199852791e-13
4.366854100545936035e-13
-1.419368095278983333e-13
4.366836753311176267e-13
-1.393468673782649603e-13
4.847806184260505802e-13
-2.285671651947041028e-14
-1.113597061785931430e-13
1.114854736306014615e-13
8.345667906750620091e-14
3.760082523118768449e-13
-1.828398543679554678e-14
-1.174754737931493764e-14
1.664154924974070582e-13
1.243892142066549411e-13
-3.285019825605139943e-13
1.372166269497654412e-13
1.372166269497654412e-13
6.186370860028489460e-14
-7.551390068805119427e-13
-6.164886309778516704e-12
-2.388697041815629474e-11
4.920369667260615643e-14
7.440228988464525628e-13
6.164880129826133537e-12
-2.388697028263102318e-11
-9.298117831235686026e-16
-4.269640196952195765e-13
-5.411072525923939225e-11
2.966483573271349455e-11
1.038266694841638582e-13
-2.685629496568253671e-13
-1.027100128038471727e-11
5.643785568756692038e-11
-1.427538642850834094e-13
5.419883292168137245e-13
6.459168574622035225e-11
-5.859321961133737502e-11
-3.026398576189137657e-14
8.918213389996765272e-14
1.427195894018046252e-11
-1.108359096776284636e-11
1.429585616552486727e-13
-8.558258268731577800e-14
-4.178760735064433046e-11
6.755758790116892648e-11
1.543071226350889447e-13
8.787068295212918656e-14
-7.571519664495082735e-12
8.770550548806968407e-11
-2.428370005080893179e-13
1.467844942815155207e-13
4.878107622092379796e-11
-4.671644190857893479e-11
-1.802794025174137005e-13
2.337990911982501530e-13
4.540757447983926297e-11
-1.240542715481938313e-10
2.403077736801151332e-13
-6.174704844652545432e-14
3.272950194964071094e-11
1.726704240134486860e-10
8.673617379884035472e-16
8.743006318923107756e-16
-1.322553178084717729e-14
5.460909502374988733e-15
4.904247364115321695e-12
-5.546522164557514227e-11
-1.666722315718516256e-13
-1.278786104785822886e-13
-1.686317710259722675e-11
2.085087568387224881e-11
1.649166914141630969e-13
9.236578515925408794e-14
-4.904175919257913047e-11
1.216616661887863862e-11
-1.060262988517024496e-14
-1.257253849640260768e-13
-2.884168642100699322e-11
5.491188320361412890e-11
-2.479266791866052699e-14
2.819415707844274976e-13
1.195835467595555285e-11
-3.202598856412702116e-11
1.557781681427172771e-15
9.872311301784009174e-15
-2.207995857548064600e-12
1.626907664847593998e-11
1.012523398458142765e-13
-2.018827813254908676e-14
-6.938305398968003246e-12
3.894080920891461461e-11
-3.054136804570006802e-13
6.764510826484659844e-13
5.127449671310990373e-11
-4.678040363732143860e-11
-3.934352843515398490e-15
6.711471656206668968e-14
-1.144137085420937616e-12
1.107802041831577877e-11
1.700098395396310025e-13
-2.079881405991912402e-13
-1.424613976997368345e-12
-1.671922247085358849e-11
-6.773314548125242140e-14
-5.227936139551303540e-14
4.542669503906048012e-12
2.170374348619337913e-11
-1.870725796493388771e-14
1.161327978227433277e-13
-3.093569278240886067e-12
3.749510699483076664e-11
1.038058528024521365e-14
1.096865653860135126e-13
-5.239101307733667889e-12
1.700450233570248264e-11
3.143318938469974455e-14
1.482650807682617256e-13
2.156821837895708284e-11
4.142402718332181171e-11
-7.607933380504583454e-14
3.959922667551296627e-13
1.593075086927272892e-11
-3.079849914223921781e-11
-1.539046667886623254e-14
-2.877680732593645985e-13
-9.698040710336836012e-12
8.570438996383415112e-12
1.492074692965861260e-13
1.406106134305140642e-13
1.947413430567043659e-11
1.383563024111094612e-11
6.611378111642807198e-14
3.091966786772371023e-13
-1.205204087028309556e-11
-4.890315733133555713e-11
4.671263376110346144e-14
2.580418517750260321e-13
-1.189893589746433139e-11
3.842566563909118136e-11
-1.925716530681853556e-13
2.698570533699040652e-13
9.720053876908531232e-13
2.050936390119925679e-11
-1.745825706223058660e-14
7.768091725424142169e-14
3.804253998406989523e-11
1.001048259246357063e-11
3.749778265671466215e-14
-1.519704501129481855e-13
-5.114887029547543484e-12
1.221666499651727703e-11
1.240674230018612434e-14
-2.900128054372785869e-13
2.542466373068111296e-12
-4.268866782348892767e-11
-4.077641002631082756e-14
9.381384558082572767e-15
1.245108886260555374e-11
1.296554618666391229e-11
-4.991146385080469372e-14
4.726687791167805130e-14
6.375709923661827816e-12
-4.114811266276807798e-11
1.451616604697392177e-14
3.026745520884333018e-14
-6.056047861541929977e-13
-1.262814341756925834e-11
-2.611244553918368183e-13
-1.366554439052869441e-13
4.816081689403223579e-11
1.243509017544858208e-11
9.999999999999632516e-01
